-0.041287463
-0.05637495
0.16892055
-0.060350165
-0.33056268
0.0210687
0.17078033
-0.07928779
0.037820205
-0.012816097
-0.16939391
-0.008142905
0.026409784
-0.22315502
-0.02131514
0.2252648
0.011140406
0.2174709
-0.008630809
-0.10701784
0.13247266
-0.048880577
-0.063606896
0.042870685
-0.04118814
0.048568513
0.02225846
0.1996743
0.22753707
-0.0541005
0.2353719
0.05014944
-0.043409925
0.07702614
-0.0026212824
-0.14131904
-0.04752477
-0.040043373
-0.038309623
-0.11682174
-0.20312878
-0.1474318
0.08550602
-0.0327584
-0.044298187
-0.017090905
-0.07386786
0.10622575
-0.1489871
-0.28668854
-0.046394054
-0.07555556
-0.19074094
-0.009109694
-0.07315645
0.09947228
0.08409717
-0.22851019
-0.46075535
-0.17384803
0.035297625
-0.05872618
0.15263419
0.0082548745
-0.2712732
-0.09174914
-0.020187818
-0.53429615
-0.15832521
0.070443235
-0.19481386
0.06461215
-0.03365797
-0.094633
0.1362315
-0.23979694
-0.23744106
-0.17796817
0.103500344
-0.06354389
0.11319803
0.014037527
0.014901763
0.020628154
0.03194181
-0.06017985
-0.03787323
0.0008547225
0.05736064
0.06114288
0.15666316
0.07809902
0.17922996
-0.12971978
-0.5587285
-0.1845836
0.22572121
-0.23107237
-0.13788137
-0.061711036
-0.43293482
-0.28502187
-0.04455065
-0.4202674
-0.17077795
-0.09421401
0.005404859
0.12893511
-0.10370243
0.12566541
-0.15996934
-0.07341458
0.006260625
-0.06388756
0.12722546
0.29046372
0.13789384
-0.14490022
-0.030329118
0.06845652
-0.24879901
-0.23279645
0.04399157
-0.15437834
0.01587102
0.11329358
-0.12649369
-0.29433885
0.013841951
-0.37016916
-0.74921197
-0.09081301
-0.0009990527
-0.29525656
0.17012212
0.13889694
0.038345505
0.15634787
0.07539285
0.052488837
0.045656472
-0.034937583
-0.011353123
-0.035656914
0.14948602
0.18188463
0.0055879303
-0.029379
-0.051617038
-0.05302446
-0.059404187
-0.032605313
-0.035851963
0.38322836
0.15965968
0.04099104
0.18443534
-0.17296751
-0.15290608
-0.08559788
-0.21025342
-0.22902623
-0.27318892
-0.18071207
-0.08623507
-0.10365647
-0.021699807
0.06034261
-0.042415995
0.091913976
0.14422642
0.31952462
0.3017202
0.17739806
0.11965839
-0.035388492
-0.045649726
-0.15807125
-0.11903752
-0.074037515
-0.1530144
-0.20462282
-0.21927124
-0.1407606
0.013113784
-0.01433527
0.17366935
0.1931273
0.107579015
0.09755317
-0.008723641
0.08155933
0.07694955
0.06638941
0.014258543
0.13145359
0.09464533
0.044612166
-0.13063991
-0.27549794
-0.2690237
-0.2942035
-0.49485174
-0.21859391
-0.11794835
-0.08024759
0.10233296
-0.04924809
-0.008163053
0.05078731
-0.076749995
0.047794517
0.07353459
0.02859599
0.19144797
0.08899279
-0.27460098
-0.40863526
0.024026893
-0.3776885
-0.35911617
0.09986936
-0.18966173
-0.18396029
0.22287773
0.0937163
-0.007427898
0.0416629
0.029028717
-0.0693792
0.052648462
0.026088253
0.005750687
-0.0014614523
0.10942946
0.011236786
-0.05770367
0.07027387
-0.15461634
-0.049093306
-0.07442447
-0.15916434
-0.047292124
0.1855534
0.26516104
0.1406816
0.096199386
0.15990971
-0.067337856
0.15249479
0.19526371
-0.006351902
-0.0007425807
0.018188609
0.042878106
0.051369928
-0.041198675
-0.11805319
-0.08833186
-0.18814622
-0.15857622
0.046483066
-0.15973313
-0.15011856
-0.02138776
-0.15772423
0.01887051
-0.05020104
-0.07624059
0.046749234
0.008828595
-0.10409455
-0.12418233
-0.24206941
-0.3240843
-0.116882496
-0.23545747
-0.05495087
-0.095924005
0.1721763
0.16694658
0.12929577
-0.02365149
-0.040977657
0.024064397
0.026220376
-0.0066761663
-0.07791395
-0.06325375
0.0018110318
0.28515732
-0.14067754
-0.2328904
0.18338229
-0.06820642
-0.25205618
0.11824934
0.07309712
-0.0071560806
0.07899051
0.07974803
-0.0630537
0.08089162
0.14446181
-0.15190883
-0.057369128
-0.15075675
-0.008745642
0.3122709
-0.12994827
-0.091003574
0.18087412
-0.024681056
-0.05706164
0.2865196
-0.06160778
-0.01665489
0.2827399
-0.13973126
-0.16363096
0.08113035
-0.16195886
-0.15657641
0.05251488
0.034222286
0.022400059
0.14210315
0.019944254
0.015172597
0.08202994
0.13141476
0.09133699
0.150856
-0.12692784
0.01396148
0.19273098
-0.099924795
-0.050826814
-0.017672535
-0.0060983174
0.051746063
0.05041204
0.07686884
0.01588346
0.0046354416
-0.30105793
-0.3937341
-0.15453427
0.041424535
-0.2113841
-0.065837204
-0.1721342
-0.14246163
0.001176679
-0.13380502
-0.18843922
0.047697347
-0.0683051
-0.12006734
0.055911444
0.0680644
0.1514355
-0.25321662
0.14276029
0.31113756
-0.072250865
-0.05975678
0.1406141
-0.26530552
-0.17834719
-0.13818975
-0.026013538
-0.10940192
-0.09187798
-0.015599106
-0.06709438
-0.15090474
-0.12391209
-0.14529626
0.10778276
0.029252367
-0.34710926
-0.1132066
0.20515098
-0.07044074
-0.0599229
0.21540588
-0.12669648
-0.26708993
0.045603506
-0.22741082
-0.32569033
-0.075224824
-0.021771118
-0.15735437
0.032910533
-0.20274813
-0.025557669
0.40631226
-0.26369786
-0.24145289
0.10638845
-0.039638046
-0.1225675
0.18277438
0.051685672
-0.044391535
0.14099436
-0.2016005
-0.3646405
0.1101083
-0.04084987
-0.16369945
0.09712619
-0.07865821
0.16117091
0.118430875
-0.28399947
-0.3197875
0.072759904
-0.14397803
-0.21281096
-0.10316421
-0.03707516
-0.02435467
-0.013920406
-0.083842896
-0.17655577
-0.025617449
-0.12973914
-0.17369053
-0.042426135
-0.08930602
-0.47176877
-0.15724117
-0.028583363
-0.17740868
0.06146927
0.06182744
0.13679878
-0.11660911
0.12015001
-0.1508179
-0.2127472
-0.0018276128
-0.11886917
-0.03479304
-0.019504463
0.055686455
0.25662875
-0.03900531
-0.28814575
-0.17818022
0.096523
-0.014645824
0.055575788
-0.013248316
0.30283672
0.06948727
-0.073766515
-0.16704197
-0.115764014
0.07218364
-0.080665156
-0.023175629
0.19157565
0.1813302
0.013625474
-0.015383089
-0.06589522
-0.013137978
-0.08970326
-0.16133639
0.01732967
0.096156076
0.15326245
0.10226303
-0.13308217
-0.33863467
-0.085164025
0.0044150706
0.06753933
0.16270527
0.17323524
0.23139583
0.13458136
-0.07122199
-0.23132221
-0.12945616
0.031902853
-0.1220968
-0.008410689
0.073173836
0.100275606
0.09807201
-0.009665727
-0.61460936
-0.35382575
-0.13106978
-0.51626265
-0.22247729
-0.18646622
0.017124306
0.05095739
-0.015732769
0.16924667
0.02921279
-0.008116581
0.11104102
-0.08644089
0.008498974
-0.14332153
-0.048331738
-0.03252806
-0.054547105
-0.049597554
0.00088068383
-0.028455762
-0.0534713
0.055247713
-0.040269546
-0.0070331753
-0.15196781
-0.24595429
-0.097035944
-0.0044287834
0.063894995
0.22732578
0.04368553
0.12108544
-0.15667324
0.02884439
-0.026183022
0.0854327
0.09364341
0.06541381
0.12527747
0.015897898
0.19226521
0.022958256
-0.3514642
-0.41137755
-0.3426003
-0.19532454
-0.19296128
-0.018729089
0.489758
0.471873
0.36468348
-0.17167799
-0.32184613
-0.26243484
-0.04892378
0.0837655
0.29162782
0.08199665
0.20217954
0.054780588
0.017313054
-0.14941306
-0.045943696
-0.02467227
-0.047624253
0.08890941
-0.023373988
0.016100284
-0.009161122
0.056711625
0.019605087
-0.020148179
0.03958396
-0.06461653
0.065146655
0.06960231
0.038609933
0.039247192
0.0057384605
0.06392878
-0.0017541994
-0.16205631
-0.037411615
0.072498165
-0.18045202
-0.08027756
0.036802318
0.050223686
0.02824645
-0.029926345
-0.24425335
-0.24281427
-0.06765027
-0.08337438
-0.14944728
0.041365497
-0.08435999
-0.18720211
-0.11646925
0.15052865
0.16172223
-0.0049958965
0.007335848
-0.048123866
-0.09262865
-0.14120127
-0.11670321
-0.10614135
0.09367904
0.25933427
0.039183613
-0.017435774
0.25772914
0.1995686
-0.119983904
-0.16227573
-0.1183164
-0.14319368
-0.1255091
-0.06113223
0.04043896
-0.13565953
-0.10151514
-0.048426192
-0.048678715
0.07293433
0.02945419
-0.11270831
-0.04317248
-0.006408507
0.01675891
0.058833253
0.09768811
0.12756948
0.056253877
0.11656443
0.172392
0.19331957
0.12667814
0.0672734
0.12565093
-0.03884972
-0.14334156
-0.018998686
0.09923032
-0.026098266
-0.25671056
0.01587932
0.21842009
-0.12374923
0.023843236
0.16221683
0.22840545
-0.10842525
-0.14556232
-0.034224078
0.105600335
-0.13059698
-0.14867784
0.137885
0.13489218
0.091808446
0.20162807
0.12750587
0.1835494
0.1260543
0.21594425
0.17401266
0.14623679
-0.10957222
0.006554009
0.14138524
-0.09655409
-0.21816312
-0.04316541
-0.0029486802
-0.06201583
-0.123644285
-0.556309
-0.41853735
-0.021443902
-0.41618514
-0.10980371
0.015439525
-0.07266253
0.08296695
-0.22024366
-0.19351496
-0.16011484
0.008448215
0.28417528
0.062064264
-0.2126888
0.18515722
0.18426049
-0.17406332
0.052957382
-0.079933845
-0.032425515
0.36146703
0.3365559
-0.048564132
0.27638957
0.28564706
-0.03439406
-0.07142855
-0.018029457
0.06844331
-0.13372838
0.06192646
0.041411586
-0.11439077
-0.043153144
-0.014204805
0.008422172
0.0059553804
0.12884311
0.1535095
0.14106072
-0.0342742
-0.0027522605
0.04549689
0.10492178
0.0010883296
-0.24074645
0.016250312
0.021426348
-0.16475163
-0.044553965
-0.078715146
-0.0068599572
0.13820104
0.028822388
-0.2406412
0.1913229
0.13776718
-0.07981111
-0.19588156
-0.11926615
-0.081630915
-0.05539895
-0.12467887
0.2488096
-0.22414237
-0.31468725
0.15700305
0.12978628
0.017460652
-0.012879447
-0.11059287
-0.39959976
0.23224284
-0.17741095
-0.4037272
0.17398937
0.27613556
0.28496176
0.17453624
0.2664679
0.2903082
0.019946733
0.029193884
0.12026186
-0.041355446
-0.09284745
-0.05722143
-0.20641772
0.049888372
0.05598515
-0.0530552
0.036379438
0.0026189655
0.00623382
0.04832801
0.029003432
0.013743775
-0.024002628
-0.029770602
-0.025899852
0.034121376
-0.008956147
-0.011851837
0.06253046
0.116052665
0.09443204
0.007841809
0.10225251
0.09668943
-0.068750754
-0.023231111
0.019398322
0.058427095
0.017972995
0.047504067
0.0961542
1.0954889
-0.33500433
0.1278783
0.88398
-0.28511503
-0.31808743
-0.2955564
-0.5394142
-0.17120457
-0.15070778
-0.075622484
-0.09404752
-0.06363881
-0.09856707
-0.05974134
0.0423964
0.016477104
-0.32491234
-0.23161353
0.07040227
-0.044536002
0.23620604
0.15028866
-0.05992413
0.02703462
-0.16015202
-0.070617676
0.1787781
0.024070127
-0.18283789
-0.027813453
-0.060042832
-0.0639465
-0.07019924
-0.02943456
-0.20381115
-1.1411341
0.7731197
-0.13597643
-0.82206845
0.52343005
0.5127702
0.24063852
0.09588822
0.4226099
-0.07321832
-0.06183339
0.12551872
-0.45072937
-0.1680204
0.041889735
0.047325738
0.22987524
0.0019671456
0.22236593
-0.16999991
-0.0344078
0.14363669
-0.11797166
0.026989616
-0.06385929
-0.045324
-0.17528002
-0.28665346
0.015115953
-0.07552487
-0.14080818
0.04468027
-0.0073485044
0.0324177
0.16951373
0.008277495
0.09686622
0.008638499
-0.01461258
0.01091977
0.0025057117
0.043872084
-0.035050664
-0.00940176
0.15054438
0.27023932
-0.05351521
0.07738914
0.12558083
0.018283667
-0.06875703
0.009203059
-0.02767291
-0.06880538
-0.07847892
0.122997135
-0.08550425
0.09864354
0.14940405
-0.09437542
0.075324625
0.077036485
-0.15043136
0.059900973
-0.1391195
-0.03273813
0.18486783
0.17200997
-0.14511968
0.018956063
0.11358026
0.038909353
-0.017466398
-0.030682955
-0.007133411
-0.028584508
0.027196508
0.013665137
0.024540078
-0.014839321
0.024864735
-0.017959185
0.02786956
0.017811466
0.002998694
0.08614323
-0.019280225
0.012810302
0.057395395
-0.055465564
-0.017468743
-0.039605808
-0.038402833
0.06458236
0.100920714
-0.05631242
-0.0081181545
-0.05630956
-0.05040563
0.027471235
0.093094304
-0.045226756
0.01747054
0.07678334
-0.02943858
-0.019252623
0.03353828
-0.28529075
-0.52584994
-0.07073539
-0.16124889
-0.59336007
-0.109827295
0.11738706
-0.25590554
-0.04475016
0.018326987
0.038918324
0.020869566
-0.0456094
0.011333169
-0.009484476
-0.01599164
-0.08802156
-0.07381604
0.11038595
0.18412034
-0.13263828
0.0995805
0.09020556
-0.10489264
-0.022384869
-0.05871828
-0.13929935
0.023133438
-0.16160376
-0.26340264
0.116752
-0.034199502
0.013325471
0.018307064
0.040073205
-0.035342194
0.03453461
0.5228657
-0.23047599
0.006197593
0.9216017
0.21968539
-0.3711832
0.26994053
-0.05920402
-0.18574607
-0.08689357
0.09986362
-0.2568971
0.045043334
0.3112266
-0.08112838
0.05239566
0.18701692
-0.1315225
-0.20712407
-0.14237805
0.0044832584
-0.1302628
-0.13848402
0.07915139
0.08260092
-0.020793244
0.051012717
0.23307347
0.05851834
0.010546877
0.17766422
0.07497071
-0.025581382
-0.022372495
-0.063758306
-0.4226132
-0.6985419
-0.53158766
-0.36690283
-0.7764327
-0.54677707
-0.036447957
-0.14174283
-0.16379696
-0.34166905
0.021101153
-0.11350559
-0.1332371
0.11215945
0.036060084
0.108089276
0.27259454
0.27082083
0.25876492
0.09557518
-0.003963402
0.08025039
-0.061133172
-0.14115971
-0.08992715
-0.18295336
-0.09110787
-0.25955293
-0.059426114
0.04657714
-0.3427279
-0.07408745
0.013064752
-0.06755786
0.09281977
0.25255588
0.031129934
0.09485321
0.10753658
0.051285565
-0.10266162
-0.0045570466
-0.016652908
0.026789524
0.16167247
-0.109733984
-0.0445251
0.0038695834
-0.021511076
-0.033728614
-0.011803312
-0.026769942
-0.004399905
0.014481371
-0.014910813
0.14309606
-0.020232143
0.04965132
-0.015398583
-0.06332112
0.17436466
0.23556836
0.19746846
0.15836819
0.14944321
-0.055292826
-0.024612611
-0.18372665
-0.309706
-0.046840716
-0.2427411
-0.050411653
-0.052144
0.01720675
0.012564143
-0.051104926
0.15221716
0.13826616
-0.076508366
0.054947477
0.119489
-0.18350025
-0.059866775
-0.0019343764
-0.08388492
0.04010333
0.15064947
0.11107448
0.20764223
0.2279169
-0.09003323
-0.15722832
-0.042859968
-0.07130037
-0.20370723
-0.27285868
-0.0003133728
0.1016827
0.14181454
0.05577813
0.040989034
0.19110028
-0.11052814
-0.068917505
-0.06744053
-0.020793408
-0.067717254
0.07998591
-0.2791455
-0.12014273
-0.19317827
0.13598166
0.01369489
0.014779976
0.1964486
0.36353964
0.4218097
0.20588414
0.09225843
0.22151898
0.076151974
-0.044184852
-0.12046035
-0.04654608
-0.05436858
-0.028510848
0.098758645
-0.12330411
-0.075526506
-0.1095691
-0.16773015
-0.12791942
0.16132785
-0.010434964
0.14326684
-0.16381069
-0.018984038
0.050465204
-0.22932453
-0.030126246
0.08632262
0.059845913
0.18832651
0.2840573
0.016045392
0.11845384
-0.012596364
-0.22030154
-0.3155764
-0.0634907
-0.35678244
0.03365309
0.24952556
-0.01582831
0.03906969
0.08474626
0.0511167
-0.09663089
-0.05762366
-0.07241616
-0.24374256
0.13066201
0.5133718
0.054981265
-0.013345094
0.20099528
-0.36380315
-0.081994906
-0.094035216
-0.2532113
0.057484295
-0.05435694
0.0399365
-0.119077645
0.056101777
0.03189697
-0.14749967
0.027729185
-0.054344863
-0.1324545
0.27020657
0.0017869849
0.17330186
0.17034328
-0.18901736
-0.16297497
0.031485565
-0.15633702
0.09941178
0.49920285
-0.126863
-0.088408425
0.3606863
-0.471832
-0.18912306
0.06599398
-0.39168757
0.08473498
0.080208555
-0.14262275
-0.23442215
0.29411894
-0.046271436
-0.37250742
0.3643875
-0.2805156
-0.15148108
0.2067741
0.5152289
0.04385452
0.3801779
-0.0048805275
-0.14117023
-0.073539555
-0.28068843
0.013142677
0.14103231
-0.21626526
-0.014276898
0.08369976
-0.0956046
0.054411832
0.016229007
-0.10630728
0.08324093
-0.04818104
-0.17105572
-0.0431342
-0.1424607
-0.11486314
-0.08977238
-0.07852794
-0.09884625
-0.12710723
0.082832284
0.03245825
-0.046979222
-0.0096350545
-0.298728
-0.06365326
-0.17445746
-0.25669473
0.07782711
0.07524367
-0.55245465
-0.22251886
-0.18560576
-0.64254767
0.004461095
-0.025397744
-0.10740076
0.25792974
0.28057617
0.14621787
0.016660154
0.24281964
-0.18689187
-0.14014938
-0.14852141
-0.14446005
-0.04430786
0.14534923
-0.07633775
0.07316126
0.15588754
-0.3562571
-0.008009147
-0.06687329
-0.17758882
0.14810014
0.11050037
-0.1122567
0.0001503642
0.23598039
-0.3031796
-0.044026665
0.025672983
-0.26088697
0.17998809
0.09116271
0.013127635
0.010948833
-0.035287544
-0.08322229
0.033122383
-0.102004915
-0.07350469
0.022153523
0.069357984
-0.05642522
-0.0030418674
0.049560014
0.101990305
-0.079498924
0.026400736
0.04671295
-0.0003475214
-0.06599686
0.06327021
-0.06618383
0.13066694
0.54698455
0.050502356
-0.14128627
0.08469237
-0.1352772
-0.28736562
-0.2782773
-0.3110479
-0.38139814
-0.6737305
-0.40082082
-0.07548724
-0.32414812
-0.19744845
-0.007895487
-0.06972573
-0.023631115
-0.09555496
-0.3119751
-0.14973822
0.029377095
-0.09720826
0.037987366
0.10400321
-0.04031907
-0.011800597
0.15043612
0.18352024
0.15235007
0.11238815
0.12942584
0.058041647
-0.03440797
0.15744272
0.06708897
0.10016815
0.23451121
0.18655086
0.062411513
0.20538983
0.079121895
-0.035387807
-0.033673506
-0.081836045
-0.046532955
-0.119384006
-0.07088737
-0.005546752
-0.024042161
0.0015943936
0.017077718
-0.088899195
0.0029010056
-0.096209794
-0.11783565
0.05581577
0.06461394
-0.02285982
0.060606167
-0.28513175
-0.21115856
-0.405709
-0.12501323
0.76618814
0.39578027
-0.22311386
-0.038904563
-0.10194791
-0.020106705
0.011261609
-0.026425902
-0.13377999
-0.10247648
-0.11319565
-0.11024578
-0.068106025
-0.15558887
-0.019290738
0.018077062
0.056529935
0.02325879
-0.030171838
0.1160074
0.1169689
0.15278795
0.23287335
0.059905097
0.18010068
0.16073692
-0.04298639
0.079297885
0.120513745
0.02236539
-0.011011437
0.011842567
0.06306697
0.06546443
0.14381781
0.10279975
-0.34101322
-0.06413192
0.1577417
-0.036501482
0.098054074
-0.022114713
-0.08666294
-0.13745055
-0.028296303
-0.35404977
-0.35061666
-0.07408738
-0.29481438
-0.3758506
0.05310298
0.03581595
-0.034575585
-0.026449757
0.11046798
0.01143739
0.00022783421
0.07441362
-0.0076970276
-0.063360505
-0.13268512
-0.0922473
-0.12484117
-0.15025496
-0.14882243
0.013623275
0.031732734
-0.11352731
0.06570119
0.09975977
-0.08713692
0.19510636
0.15821427
-0.03335763
0.081754364
0.19617866
-0.13205418
0.07571612
0.07064219
0.003112828
0.00891288
0.021113984
-0.062226277
-0.06731872
-0.03535626
-0.0061080833
0.08951765
0.015848124
0.040212885
-0.011950722
0.03383289
0.031644296
-0.05947798
0.016051166
-0.06773619
0.029683856
-0.009502361
0.06695704
-0.17790425
-0.11503096
0.013711502
-0.05547833
-0.14629005
-0.03164988
0.034505893
0.06815379
0.12536012
0.12111627
0.24676077
0.19339497
0.12856133
0.2743226
0.38274336
0.32595518
0.42707628
0.379594
0.28373498
0.5278626
0.31749055
0.2020264
0.21384978
0.289108
-0.058568772
-0.09278343
0.012161777
-0.03340924
-0.08212716
-0.015353552
-0.008224102
0.07848445
0.21115956
0.073739335
0.10462826
-0.082178265
0.052280173
0.15753852
0.11951348
0.10099627
0.07691395
0.09449721
-0.14292729
-0.047983933
0.121952124
-0.22995497
-0.16594669
0.22692887
-0.19180058
-0.0012721905
0.34958768
-0.014105439
0.059340104
-0.012131651
-0.045059185
0.0709247
0.0024246296
-0.10044117
-0.08251393
-0.012869765
0.003359311
0.06480616
0.08537996
-0.029500183
0.097488664
-0.0161685
0.12726237
0.17958389
0.00022809734
0.06723858
0.10401511
0.027912024
0.11316248
0.10359666
0.09644973
-0.0802762
-0.16969034
-0.04025726
0.11894025
0.06739526
0.06185944
-0.21256098
-0.18045533
0.117128514
0.075041905
-0.11390053
0.1812026
-0.048425753
-0.056852825
0.10869084
-0.028337006
-0.13148092
0.0050662225
-0.0497102
-0.1478556
0.027431848
0.05664459
0.07875294
-0.020363363
0.033051874
0.1349899
0.007905181
0.035668403
0.102947116
0.11692459
-0.09231005
-0.08212955
-0.06933943
-0.11926981
-0.053628877
-0.0754244
-0.09608619
-0.14452307
0.011757124
0.06607061
-0.06392837
-0.02372906
-0.033680543
0.061625715
0.031465832
-0.071780734
0.08377951
0.047415417
0.052266844
0.11328469
0.14694361
-0.5071855
-0.24767597
0.06250751
-0.511005
-0.09249196
0.08527141
-0.16142932
-0.08591068
-0.13731039
0.16894585
0.073829055
-0.054084178
0.37060112
0.38898882
-0.14178367
-0.14315347
-0.23771456
-0.18144922
0.08173122
-0.03774133
-0.12422363
0.23950946
0.0607898
-0.0843582
0.03731466
0.13248107
-0.022515886
-0.0382016
-0.02268662
-0.09258383
0.055801548
-0.03298277
0.012488102
0.15135865
0.09980669
-0.03881272
-0.0076536653
0.016097805
0.00013593613
0.0924108
0.019305116
0.10968556
-0.024626197
-0.02208485
0.019255608
0.030243983
-0.021946922
0.055423807
0.1224116
0.12337883
0.09575245
-0.023345603
0.064410344
0.014791643
-0.0003059248
-0.14300801
0.07643685
0.21554253
-0.018798796
-0.07173435
0.08098072
0.08745964
-0.054393653
-0.17744075
-0.06981607
0.040958457
-0.17831856
-0.34522164
-0.06550281
0.08700324
-0.00809964
0.0044313762
0.0479057
0.077277295
0.036670085
0.14123265
0.07515694
0.11118837
0.008621189
0.09368366
0.17943057
0.16287224
0.094540045
-0.00081785786
0.08359753
-0.29713085
-0.22635491
0.08527196
0.09820005
0.037310347
-0.08835804
-0.24226813
0.06247635
0.0980902
0.18500249
0.13726687
-0.16591173
-0.3191702
-0.11804722
0.014319796
-0.07121265
0.052466605
0.3276342
0.37343475
0.11656938
0.041437585
-0.0075068725
-0.32225052
0.05844824
0.15570532
-0.27114794
0.07993316
0.7428959
-0.027584273
-0.055494353
-0.016600797
-0.16158603
-0.15213475
-0.15274307
0.014437242
-0.07877139
-0.14734438
-0.042558875
-0.16920044
-0.16963018
-0.15211862
0.0708004
0.019112276
-0.0367637
-0.1039137
0.007921617
0.046193317
0.09572351
0.05484486
-0.037801847
0.13119365
0.066934
-0.088725545
-0.11849845
0.0283334
0.052597526
0.017991474
0.04250598
-0.23094632
-0.0645155
0.106648594
-0.14988847
0.013528573
0.0039599678
-0.036764845
0.07639659
0.15328783
0.19496383
0.015939036
-0.094940506
0.0031001135
-0.029190201
-0.15024287
-0.08792704
-0.04517569
-0.14469583
0.031272978
-0.036509797
-0.27749202
-0.12799272
0.18991297
0.017533697
-0.017090395
-0.04586712
0.07371492
0.0843946
-0.04168015
0.020772178
0.054947075
-0.24315967
-0.054875795
0.014684039
0.032957423
0.14498554
0.18556497
-0.08667445
-0.059119657
-0.06791801
-0.072219715
-0.10433541
-0.14140442
0.027463935
-0.075024545
-0.007316279
0.06249857
-0.07547682
-0.058909867
0.062008757
0.049399067
0.095494054
-0.07466389
0.104856506
0.09302645
-0.10585669
-0.13287348
0.009083126
0.13313712
0.01717675
0.06980145
-0.0026328769
0.20737214
-0.23855622
-0.16986805
0.45874837
0.25307742
-0.22264309
0.08225678
0.07460916
0.05498318
0.09722184
0.14007542
0.12304422
0.017088024
0.085828595
0.070806086
0.065970145
-0.02710889
-0.073485106
-0.16224697
0.036472034
-0.0725517
-0.054565877
-0.01083854
0.072911076
0.02170041
0.07132904
0.017286152
0.07815695
-0.036434274
-0.19224967
-0.022445621
-0.07757605
-0.003891238
-0.07970725
-0.013140727
-0.21753214
-0.5209466
-0.115686975
-0.107430056
-0.9895597
-0.61527884
0.3332051
-0.3768275
-0.17811316
0.094794706
0.18706271
0.2240602
0.13543719
0.2931369
0.18957114
-0.060917936
0.14857037
0.017626163
0.0034276606
0.14519285
0.07269844
0.009783561
0.13546906
0.07870755
0.047096983
0.06733274
0.12156155
-0.09737238
-0.019718165
-0.03603808
0.050303277
0.059008002
-0.07684432
0.0013578372
-0.05261018
-0.032597363
0.051313553
-0.059772704
0.081554905
0.09523059
0.028680405
0.048396084
-0.08834977
0.044034418
0.076670855
0.36419195
0.2849565
-0.03444508
0.31539333
0.10221179
0.083287604
-0.025644718
-0.0075500375
-0.09468986
-0.13452873
-0.05910435
-0.00737475
-0.1597655
-0.07754631
-0.109205894
0.09580403
-0.017503101
-0.035588812
-0.2389679
-0.060258105
0.0015504126
-0.07796871
-0.08838653
0.04464832
0.103420965
0.14560266
0.067922674
0.08042595
0.063026436
-0.08050301
-0.026177222
-0.0066276
-0.0530782
-0.04482993
-0.059616573
-0.15227674
0.1896845
0.059006024
0.030792922
-0.0063032485
0.07098034
0.028092021
-0.09644407
0.043097865
-0.04695357
-0.009345819
-0.07877161
0.006712443
-0.020625345
-0.07073907
0.03033247
-0.048604216
-0.020323047
-0.064078234
-0.02438139
0.006005075
0.09982148
-0.14596523
0.01754608
0.017407695
0.03802363
-0.14603691
-0.05624111
0.72670346
0.39758277
-0.16627827
0.31880748
0.26189223
-0.16425893
-0.13487716
-0.0017004876
0.041601073
0.035881408
0.12328046
0.07197797
0.06881028
0.116213776
0.0377972
0.088378355
0.017231714
0.13125676
-0.15136492
0.034673914
-0.009367479
0.0029465426
0.117595926
0.07959355
0.09182322
0.06752332
-0.024016375
0.023538254
0.020021481
0.007356965
-0.060372915
0.13962036
-0.029975412
0.008456836
-0.025666242
0.04845842
-0.45162064
-0.14191784
0.15975688
-0.19021708
-0.020331953
0.023633484
0.12503165
0.06578755
0.07830518
0.016545149
-0.06297693
-0.0014183482
-0.12058288
-0.2610923
-0.02861844
0.045878526
-0.09730803
0.0218045
0.040564965
0.010953681
-0.0060082627
0.12519805
0.102839835
-0.07834709
0.053217433
0.0049533607
-0.123393446
-0.031334355
-0.032072756
-0.1082759
0.15025677
0.07404534
-0.013047741
0.092501484
0.14064385
0.13313176
-0.08469611
-0.14442685
0.001146683
-0.10340984
-0.14971888
-0.14673556
0.17037012
0.03869012
0.20518824
0.07045
0.055504877
0.20021927
-0.0007680486
-0.06784842
-0.03875897
0.15133475
0.00075109745
-0.039229367
-0.062606595
0.0784421
-0.006945895
-0.17504717
-0.11253023
0.0027591109
0.07043642
0.114909865
0.07518679
0.10436202
0.014646435
0.12557799
-0.04487901
-0.2886376
-0.2131674
0.19442612
-0.08745412
-0.10330045
0.030034734
0.17012174
0.14441714
0.12155018
0.15178241
0.24333757
-0.0148822665
-0.041881077
0.009864181
-0.0066639665
0.14227888
0.07506297
-0.002939277
0.11090382
0.15376794
-0.114454746
-0.06040835
0.039160226
0.13005292
0.029117266
-0.047167446
0.037216168
-0.016199602
-0.0068004443
0.06464487
-0.04456193
-0.051761236
-0.12458663
0.2511832
0.17588249
-0.22804426
-0.363729
-0.02077262
0.092204966
-0.19065703
0.025687153
0.071501374
0.12686212
0.24543451
-0.19190472
-0.17235655
0.16075017
-0.059490293
-0.28240797
-0.038469248
-0.11540915
-0.14902917
-0.10367527
0.0045096967
-0.05770914
-0.06853786
-0.036726493
0.002477749
-0.057805363
0.13401231
0.18739991
0.3080381
-0.29260227
-0.44365516
0.21040557
-0.142744
-0.55620944
-0.29954222
0.085903645
0.028853202
0.19073926
-0.055462956
-0.3367884
-0.2934403
-0.09475843
-0.5090811
-0.46975383
-0.122421354
-0.012237304
0.17608885
-0.1532536
-0.11363881
0.11552732
-0.060552284
0.01126448
0.18647976
0.12872036
0.095174596
0.30421072
-0.19241366
-0.23367439
0.1908487
-0.19832544
-0.3366559
-0.23022552
-0.11553468
-0.0015220933
-0.03231866
-0.24833842
-0.26378557
-0.28061762
-0.03898488
-0.14020982
-0.16772649
-0.11936721
-0.104615435
-0.19443676
-0.1412282
-0.19148801
-0.15189354
0.09674287
0.044989612
0.03427064
-0.20213786
-0.22237067
0.02781654
0.11152218
0.15666339
-0.024921834
-0.097622626
0.058076926
-0.115698226
0.028742667
-0.08789264
-0.053847376
0.021672621
0.111641094
0.040803697
0.007234832
0.050995592
0.04219448
-0.15034825
-0.020346444
0.2117011
-0.11468203
-0.09971464
0.04237024
-0.09505617
-0.24332602
-0.0016431189
0.005533783
0.008822543
0.05385424
-0.042973008
-0.088199906
-0.044423178
-0.054926842
-0.018154247
-0.02102455
0.07561973
-0.008578855
-0.024828603
0.12181332
0.074947685
-0.007031121
-0.040251464
-0.034398336
-0.011534794
-0.0036738073
-0.032205373
-0.09414556
-0.085391514
0.009387412
-0.029800115
0.14055942
0.09115715
0.024141362
0.2064309
0.13800797
0.10823924
0.25378293
0.1988118
0.05643658
0.23326704
0.3081211
0.08113277
-0.0045038643
-0.0009997861
-0.06875235
-0.1324642
-0.053304765
-0.010550131
0.052717563
-0.12081326
-0.022479251
-0.041839436
0.019809583
-0.06312542
-0.02356438
0.01950254
-0.003376418
-0.06901229
0.1309328
0.011804106
-0.071710296
-0.036374953
0.0032007303
-0.06721812
0.008586742
-0.044135675
-0.002657205
-0.0864287
0.040744245
0.054308157
0.099528186
-0.01830961
-0.07090573
0.24209827
0.02103872
0.6074869
0.30247197
0.037985504
0.28383088
0.33769256
0.07145586
-0.0075411173
-0.277728
0.03710417
0.39997998
0.62765807
-0.038515072
0.030204313
0.048679315
0.06264539
0.1723961
0.2532872
-0.15477723
-0.1698587
-0.18324357
0.059640154
-0.105147265
0.10728308
0.104562595
-0.2990421
-0.17865553
0.040875856
0.489839
0.4318431
-0.14929122
-0.006266134
0.10753835
-0.0907599
0.04485438
0.028650435
0.042894006
0.1015163
0.10847478
-0.03933994
-0.1592302
-0.022028431
-0.01798087
-0.06994492
-0.02024702
0.040815793
-0.1295291
-0.07833809
0.053648993
-0.03328054
-0.15296285
-0.10831187
-0.006569012
-0.135562
-0.19653495
-0.066979475
-0.026634023
-0.06836159
0.047158994
-0.13419935
-0.082241915
0.12719761
-0.061125133
-0.03053715
0.15857017
0.06522626
0.058545165
0.029650569
-0.053269368
-0.0007620454
0.041422665
-0.052320484
0.042218503
0.08852118
-0.18367311
-0.058006458
-0.15909444
-0.105154514
-0.057434857
-0.025024787
-0.027307294
-0.103059664
-0.0629955
-0.019773915
0.014707105
-0.008826724
-0.08103673
-0.027762925
-0.008798498
-0.050087117
-0.0024493472
-0.04810579
-0.15724957
-0.09989831
-0.08511775
-0.054815207
-0.14691086
0.009305408
0.009171906
-0.06364568
0.059402894
-0.110126406
-0.15547203
-0.15346113
-0.21340016
-0.1605118
-0.14565898
-0.23792459
-0.14409362
-0.12888145
-0.18908362
-0.14365278
0.055996556
-0.15090759
-0.04193885
0.048630103
-0.17926644
-0.06684406
0.029737918
-0.13159393
-0.17055772
0.022412438
-0.035977177
0.032023385
0.04481234
0.023193546
0.021072447
-0.1061141
-0.15578754
-0.1320883
-0.028298162
0.06285541
0.009311526
0.006609597
0.022342116
0.0004578644
0.046049815
0.047124155
0.012014331
-0.09877323
-0.12197117
-0.05467774
-0.048207663
-0.09971531
-0.08572997
0.089230165
-0.13622114
-0.11410342
0.005827505
-0.06991798
-0.07427755
0.04413102
0.039766867
-0.010793005
-0.04302392
0.032332204
-0.06598213
-0.07304086
-0.13492236
-0.04482192
0.041063327
-0.054719593
-0.049183864
0.11979218
-0.060092553
-0.046666607
0.113913156
-0.02964866
-0.046644684
0.09053207
-0.12453367
-0.1076088
0.09171764
-0.21858382
-0.20334423
0.015884265
-0.14701965
-0.17334661
0.10490564
-0.047623698
-0.16752356
0.07347585
-0.06362732
-0.14491051
0.07543384
0.040689062
0.060552225
0.025505902
0.10919471
0.02644021
0.13395028
0.03588281
0.02067776
0.15394785
-0.169287
-0.17625086
0.121217825
0.3555253
0.060402147
-0.22464159
0.03973907
0.08561091
0.14459053
-0.19081335
0.21708685
0.083577864
-0.050482444
-0.07636402
-0.024477484
0.20717658
-0.13118117
0.20483503
0.48209858
0.010975359
-0.15692316
0.022326542
0.07156591
-0.13072406
-0.43247893
0.0810288
-0.020204501
0.08157464
-0.20890062
-0.14109819
-0.12705974
-0.118917845
0.04567449
-0.05451719
0.12551145
0.32672995
0.28890857
0.23735146
-0.0030547464
0.19387707
0.14288716
-0.14112349
-0.22475003
0.017769221
0.22072655
0.21356097
0.27578518
-0.048974432
-0.08326828
-0.110783786
-0.14915448
-0.35873938
-0.2777947
0.023027088
0.046032026
0.04202559
0.093241535
0.110069714
0.05472628
0.025256895
0.29248658
0.16552053
-0.29421034
-0.14242642
0.22278361
0.028098257
-0.0072960975
-0.032910313
0.13677716
0.21909533
-0.26323226
-0.09522654
-0.7947221
-0.30741063
0.31087127
0.26961342
0.09202351
-0.13127756
0.4995073
0.12284435
-0.0016514637
-0.14630562
-0.061400685
-0.038616534
-0.038337078
-0.059863277
0.020626992
0.09509812
0.03417763
0.06257876
-0.25840652
-0.114469096
0.035136376
-0.54820347
-0.23988642
0.03179683
0.10794164
0.11459455
-0.081979595
-0.35673153
-0.33123958
-0.17509589
-0.39149374
-0.20671262
-0.049087927
-0.2615374
-0.045490224
0.25365207
0.8422284
0.26376286
-0.37623888
-0.13255917
0.06535337
-0.047952384
-0.85077536
-0.11108496
-0.05013321
-0.004413276
0.3188352
-0.043195553
-0.3456489
-0.08776063
0.19627997
-0.019559832
-0.19411024
-0.2305344
-0.4180577
-0.22550015
0.0342899
0.22967425
0.13189578
-0.011377609
0.31872055
0.10854328
-0.21218723
-0.089679524
-0.054178294
-0.040996455
-0.10815802
-0.13341565
0.17889059
0.03875325
0.05089694
-0.12771477
0.20196818
0.48994285
-0.23837702
-0.7334228
-0.1575063
0.11341375
-0.21029419
-0.20671335
-0.059900053
-0.09870073
-0.009714385
0.052132033
-0.006601393
-0.24012905
0.031773217
0.13614842
0.049748577
-0.13083556
-0.29771587
0.41856954
0.062036853
-0.33872366
-0.17892088
0.3149835
0.11534297
-0.062115546
0.054725014
0.11168767
0.15358387
-0.008990054
-0.050072584
-0.10187172
0.1461536
0.02251023
-0.2123533
-0.20916471
-0.11873371
0.28702933
-0.13751128
-0.3914756
-0.04758076
0.22896306
-0.06809095
-0.13437122
-0.09867234
-0.4335666
0.089588895
0.38469404
-0.362989
-0.4175142
0.4592258
0.19656777
-0.03313375
0.05909749
-0.14297315
0.11560781
-0.04795819
-0.3813245
-0.17483227
-0.002084706
-0.07360556
-0.53908426
-0.15316169
-0.52337307
-0.068620786
0.21458702
-0.030989034
-0.32935226
0.047210004
0.62037075
0.13166216
0.016956741
0.028192265
0.06659174
-0.027747525
0.037511494
0.04837006
-0.1004776
-0.1036911
-0.02751913
-0.06661726
-0.18558723
-0.039290827
-0.08328781
-0.060356203
-0.0862954
-0.013010484
-0.015011734
-0.14217395
0.022524776
-0.23986934
-0.036383495
0.1625098
-0.004671102
-0.22515994
-0.01699448
0.30016544
0.07442273
0.04939351
-0.48830217
-0.21529664
0.29425707
0.3057746
-0.3056943
-0.05734537
0.30326596
-0.1166783
-0.104121104
-0.22614004
0.43851256
0.0745095
-0.46393874
-0.10635866
0.32149297
0.021804936
-0.11691045
0.029672602
-0.094107054
0.13387744
-0.030486317
-0.3487952
-0.2577461
0.16073349
0.17173919
-0.025843337
-0.05236243
-0.039352357
0.2661758
0.057153195
-0.2534482
0.2333298
0.051389534
-0.25604966
-0.19670746
0.1254515
0.05489399
0.124726266
0.093400314
-0.115528844
-0.047214482
-0.011533559
-0.02998596
-0.011224988
0.07877997
0.22679791
0.121173084
-0.016426615
0.1665515
0.18002415
-0.16147375
0.092266664
0.101171024
-0.0843141
0.029747616
0.21214661
-0.07284259
-0.004302635
0.14969398
-0.09989359
0.054635637
0.012665276
0.039314717
0.15244405
0.1377698
0.00539983
0.23102574
0.08748936
-0.038271442
0.13693343
-0.045571968
0.009182834
-0.19713613
0.009010306
-0.017026657
-0.06182187
0.06165815
-0.012657654
-0.19284622
0.05226615
0.018363362
0.056579154
-0.027791305
-0.032209743
-0.008205913
0.094903
0.113960676
0.083895154
0.042940512
-0.17152873
0.05544825
0.044557076
-0.10466908
0.06895672
0.08114727
-0.042575743
0.22996855
0.076712325
0.055136397
0.017417943
-0.33738285
-0.09865195
-0.33417457
-0.38053945
0.06625104
-0.081955925
-0.28585523
-0.028999863
-0.13473524
0.5421107
-0.096323766
-0.03924632
0.488392
-0.044301774
0.13931261
0.4267564
-0.015971653
0.109038025
-0.07192581
0.01117381
0.08106714
-0.2158109
-0.01780319
0.06328101
-0.121222176
0.011667032
-0.050110396
0.112775825
0.028814556
0.029473042
0.091299765
-0.021520507
-0.005719337
-0.00087464193
-0.06564667
-0.095067695
-0.0958206
-0.12739624
-0.19825959
-0.113384694
-0.05312675
-0.09979298
-0.0077544767
0.005937423
-0.042254288
-0.028590195
0.024639
0.050180808
0.006311837
0.07756118
0.07594726
-0.13172898
0.10621273
-0.13783213
0.053883698
-0.04914353
-0.15066203
-0.007562215
0.16943018
-0.023063058
0.010770655
0.23184577
-0.057173226
-0.27712923
0.041219663
-0.08875908
-0.31975946
0.36882937
0.011933731
-0.24196014
0.02056241
0.15590334
0.05959877
-0.14660303
0.10294622
0.0881607
-0.021725735
0.09907197
0.021706227
-0.1576192
-0.018475153
0.024413116
-0.10563423
-0.027553378
0.026858129
-0.072895326
-0.14629509
-0.0015044544
0.23479767
-0.3053055
-0.23668645
0.37514716
-0.3325526
-0.6016126
0.56413156
0.11213372
-0.22487116
0.18768856
-0.15371124
-0.19026783
0.24930964
-0.12192833
-0.11841091
0.3626679
-0.20741564
-0.064027384
-0.02675608
0.02408635
-0.25321925
-0.033562534
0.11202533
-0.2799276
-0.14014827
0.14147347
-0.08159463
0.06972767
-0.04623329
-0.06371477
-0.020218533
-0.052987304
-0.15198371
0.17848714
0.085214116
-0.10812675
0.11164009
0.054618143
-0.07274512
0.21454807
0.027015442
-0.13495156
0.12726545
0.16039957
0.10553918
-0.030999023
0.003887209
-0.08173383
-0.045686506
0.05695089
-0.0801516
0.023930902
0.053602077
-0.0070289797
-0.061094597
-0.21341175
0.05723264
0.06366019
-0.3278435
-0.08925422
0.20011982
-0.09545105
-0.06962821
-0.049325693
0.046503436
0.20024648
-0.16015911
-0.088474564
0.2632552
-0.3355428
-0.33823052
0.010938101
0.119593
-0.10137616
0.0045552207
0.15118316
-0.3002675
0.053868674
0.35831153
-0.19870055
-0.07593059
0.0065513374
-0.07737583
-0.022450998
-0.002180568
-0.08982729
0.02262827
-0.06664373
-0.08509687
-0.021857478
0.0020004935
-0.056228686
0.082113765
-0.14630128
-0.036594633
-0.028031258
0.17657977
-0.23506819
-0.052579787
-0.11213055
-0.046045855
0.05412698
-0.050468605
-0.18068996
0.054642517
0.036729086
-0.11557727
0.0032895561
-0.002740073
0.052519538
-0.26180083
0.45575073
0.25380877
-0.68303007
-0.03681933
0.50323653
-0.10215446
-0.007611112
0.09450524
0.07408752
-0.2256719
0.1786337
0.30310518
-0.15535903
-0.08030244
0.32988164
-0.029926678
-0.024442626
0.23395304
-0.16736019
-0.18449451
0.041368455
0.039925028
-0.10628587
-0.07859258
0.16029574
0.0097300885
-0.11898935
-0.008339226
0.11931006
0.008205075
-0.025613489
0.057533134
-0.13158306
-0.06962811
-0.16398856
-0.00023996693
0.024818875
-0.118372574
0.0460259
0.08999979
-0.12279696
0.25314462
0.1520662
-0.13542905
0.019522553
0.09555849
-0.053860415
0.15464553
0.056652427
-0.24505064
0.045997843
0.025128556
0.027710347
0.13829778
-0.11601101
-0.14090976
0.034289267
0.10384313
-0.081829906
0.21176814
0.026165573
-0.12747985
0.045504954
0.037884872
-0.02359578
0.033696614
0.084544115
-0.07686812
0.1087064
0.038063217
0.10743441
0.072981
0.02342147
0.036409296
0.058189303
0.11861908
0.15060148
0.24679476
-0.023722095
-0.12504794
0.02255964
-0.10578479
-0.1305037
0.06384528
0.042507526
-0.017050607
0.14068907
-0.06680935
-0.052608676
-0.17063741
-0.020335611
0.044266846
-0.03485705
-0.24226753
-0.37734511
-0.26559377
0.08338126
-0.09319145
0.049935624
0.0027954031
-0.06010303
-0.0040203966
0.11963389
-0.09325485
0.13633087
-0.13013382
-0.15443943
0.008385656
0.12424734
-0.025774624
0.19690444
-0.12754232
-0.24619761
0.017778497
-0.0316768
-0.033349756
0.077545166
-0.0030827087
-0.06076612
0.0027812268
-0.08683583
-0.06948715
0.040780663
-0.09538309
-0.1486069
-0.24538809
-0.075205825
-0.0048841457
-0.060954075
-0.17744228
-0.26956075
0.08834319
0.004788092
0.062412225
0.116700664
0.10656445
0.019185456
0.06995437
0.12761061
-0.12252084
0.032430343
0.10817704
0.04348656
0.19619334
-0.2654555
-0.25384706
-0.03897701
-0.10360395
-0.11907816
0.13903713
-0.09950899
-0.13443649
-0.32453248
0.38174164
0.27645263
0.13747463
-0.25391045
-0.42553878
-0.3110473
0.077251785
-0.008526091
0.10782228
0.20402412
0.15171604
0.21163352
0.12889381
-0.13966523
0.25900614
-0.08144337
-0.11930138
0.025147999
-0.046894006
-0.056912236
0.06690065
-0.094489
-0.046491172
-0.02075845
0.015752962
0.065847136
-0.044288356
0.0055158944
-0.03656251
-0.023067154
0.028972039
0.002417305
-0.003140408
0.151579
0.4139012
-0.017250996
0.049918313
0.39513618
-0.016660033
-0.14253807
-0.18488401
-0.2844749
0.14783877
-0.0696354
-0.021044355
0.17385548
-0.07037447
-0.14981642
-0.11152804
-0.052855033
-0.027986795
0.13750988
0.26014525
-0.116604924
0.2134847
0.17737693
-0.07338163
-0.12362678
-0.10264982
-0.01860401
-0.054213043
-0.14369239
-0.049123343
0.037818607
-0.041463688
-0.0970443
0.11176627
0.031062987
0.005006685
0.022335844
0.13238291
0.025865978
0.0750603
0.097946525
0.022448653
-0.09192152
-0.06840684
-0.19092605
-0.013035546
0.0034678034
0.037689466
-0.053442635
-0.065772615
0.00025154164
-0.06266657
-0.06702326
0.027311383
-0.052053884
-0.051151887
-0.058842883
0.023845691
-0.07167378
0.022677593
0.03131007
-0.06142972
0.003610121
-0.6706077
-0.60245615
0.096189655
-0.21756788
-0.28894746
0.22496198
0.35348707
0.3179321
0.029200852
0.083329976
0.021588515
-0.049088266
-0.017051825
-0.0450884
-0.0628405
-0.044633046
-0.05609736
-0.034126144
0.2583194
0.31415093
0.016831735
-0.19194515
-0.16452903
0.08071616
-0.10507841
0.05434131
0.20448811
0.01625902
0.004346155
0.010692712
-0.012727924
-0.012023787
-0.01844479
-0.06745199
0.02953719
-0.017939214
0.714869
0.8446614
-0.4928238
0.3654545
0.42153808
-0.5373111
-0.61602205
-0.31330118
-0.2102455
-0.0032220692
-0.16458589
-0.02488595
0.3812663
0.1380555
-0.2318958
0.14830406
-0.18462235
-0.18135773
0.029583562
-0.09145009
0.11364838
-0.06687243
0.039406944
0.14541176
0.0617575
0.15876518
0.082283504
0.28884882
0.14781794
-0.08999024
-0.04154124
-0.047207844
-0.017641572
-0.036088333
-0.06614431
-0.06216866
-0.24717171
-0.08132117
-0.19068927
-0.2584352
-0.13444318
-0.20942852
-0.084221646
-0.015838565
-0.14097458
-0.058830097
-0.050555196
-0.12057474
-0.13273309
-0.091929056
-0.07641103
-0.043767173
-0.02903093
-0.010501306
0.024985204
-0.040608104
0.021138098
-0.12842181
-0.16935055
-0.15740436
-0.10052249
-0.09151472
-0.03060281
-0.10130235
-0.01496106
-0.08367228
-0.01861512
-0.060567692
-0.117041364
-0.010545139
0.12553118
0.09764232
0.14463182
-0.008485498
0.11355179
0.12373202
-0.07534946
0.005435307
0.07732307
-0.13982414
-0.0368805
-0.025387917
-0.076053865
0.0497973
-0.036088396
-0.078088164
-0.07625989
-0.037696388
-0.018352436
0.023244645
-0.05826251
0.0032589096
0.056618657
-0.16146892
-0.11109116
-0.114771105
0.03284245
0.06614752
0.11248054
-0.23725472
-0.17898737
-0.26735243
-0.29971603
-0.10973231
-0.17215493
-0.24510162
-0.10006347
-0.113320336
-0.035057362
-0.0028740605
0.123760305
-0.00086500525
0.046685077
-0.0030942764
-0.07020295
-0.09686857
-0.15515749
-0.015466476
-0.023508634
0.01431394
0.048486006
0.016855545
-0.08927377
0.055249505
0.00011230127
-0.018563934
-0.17506698
-0.22819115
-0.18342188
-0.144002
-0.21452208
-0.04974354
0.12594971
0.084258996
0.12956607
-0.18424426
-0.21990593
-0.120954864
-0.0591392
-0.14039895
-0.034404032
-0.0037710182
-0.08749059
0.07216663
-0.0055508204
-0.07327152
-0.020175856
-0.14795084
-0.11324702
0.03201082
-0.07179509
0.089269735
0.21070798
0.07697733
0.111153595
0.104641415
-0.02939509
0.0042746086
-0.018235775
-0.003773604
-0.018529018
-0.03034542
-0.048066832
-0.011122988
-0.10046686
-0.11681714
-0.04325587
-0.16847979
0.085869595
0.046140082
-0.01751943
-0.047239706
0.035416085
-0.001082437
0.06059708
0.08655386
-0.053826265
0.07307712
-0.011482316
0.06531111
-0.19510703
-0.2063982
-0.13779241
0.031617247
0.25832367
0.110009454
0.051050473
0.23425569
0.115713626
-0.056089528
0.2972871
-0.2502107
-0.006180023
0.029957436
-0.19134016
0.010551247
-0.14548457
0.18660983
0.078020364
-0.43470973
-0.15935037
-0.13499382
-0.1384853
0.22819994
-0.18075663
0.15357162
0.38664714
-0.07271547
-0.39946398
-0.07747494
-0.29878423
0.06229608
0.18341392
-0.22080332
0.13849677
0.12814192
0.10751415
-0.31884798
-0.13956766
-0.050875828
-0.23621574
0.10659482
-0.08718404
-0.10992067
0.1196583
0.17009562
-0.12387677
-0.14941245
0.018851118
-0.1303738
-0.0023995757
0.058436368
-0.04849775
0.052995477
0.06457029
0.09764337
0.032880373
0.044779785
-0.09117523
-0.2646743
-0.002057849
-0.22417612
-0.168515
0.0030123086
0.2828324
-0.26315635
-0.0066447076
-0.18809643
-0.23770224
0.14716043
-0.2783234
0.07776536
-0.17724031
-0.05144008
0.040396813
0.03710175
0.072942026
-0.10015241
0.03259649
-0.04784168
0.03275101
0.13856629
0.031158455
0.09612703
0.016441086
0.016166758
0.112316914
0.08762861
0.08166986
0.15137619
-0.18328668
-0.23658021
0.19837666
-0.054994874
0.1227834
0.12752275
-0.03544437
0.15508868
-0.1986467
-0.08663455
-0.08369914
0.27358013
0.11417914
0.117028214
-0.05718635
0.0234761
-0.017829511
-0.11539074
0.31766465
-0.5588847
-0.45226985
-0.37249383
-0.7171403
0.66461074
-0.1732336
-0.060043886
0.82941496
0.010398326
-0.31406224
-0.011907661
-0.120803095
-0.038018093
0.16224572
-0.033692744
-0.122059755
0.35512775
-0.0201664
0.18015116
0.05214834
0.14381896
0.041464675
-0.2215032
0.021373814
-0.20248751
-0.17076945
0.0829244
-0.025855273
0.043642975
-0.08956432
-0.027912416
0.12796779
-0.073478125
0.048815843
0.17311634
-0.19359443
-0.63679737
-0.057080586
-0.42522871
-0.71154404
0.07767243
0.12297435
-0.2779574
-0.21804692
-0.04472573
-0.26222467
0.20281592
-0.19408192
-0.061585657
0.3545549
0.10385136
-0.12354844
-0.22650243
-0.08358917
0.04936961
-0.0021690712
0.042418994
0.15726909
-0.15757644
0.09645054
0.052842416
-0.16514696
0.09955615
-0.1205419
0.017163536
-0.17531644
-0.2705182
0.2903407
-0.09582888
-0.21954226
0.2809112
-0.112765074
0.016856378
0.07732604
-0.05957166
0.086884454
0.06930502
-0.041470412
0.057478063
-0.1698767
-0.10768596
-0.023797097
0.10213515
-0.14789695
0.030107332
0.186705
-0.019062918
0.07960803
0.0013707
-0.3229429
-0.35446355
0.16943905
-0.33773372
0.04869925
0.43053463
0.22550769
0.15285128
-0.08720715
-0.1558187
-0.10069658
0.35283616
0.007926174
0.36107105
0.38843393
0.19230174
0.12095532
0.11515279
0.057592843
-0.04106503
0.11722662
-0.11874774
-0.119004704
0.18942893
0.016294839
-0.0367139
0.05824256
-0.039842192
0.0457975
0.1586537
0.0017333609
0.09520959
0.23969497
-0.014736533
0.025903167
0.18053289
0.018057825
-0.12194469
0.0529167
-0.32019833
-0.26089656
0.55788994
-0.013985925
0.060280386
0.033000737
-0.091805495
-0.22818626
-0.24431764
-0.18262386
-0.21581896
0.1929181
0.072303995
-0.103939645
-0.00506826
-0.36566052
-0.116246045
0.35582152
-0.24644972
0.27735165
0.1723945
0.13837256
0.10272108
-0.18985212
-0.2129222
-0.04909872
0.069685146
-0.10818018
-0.038416952
0.19680667
-0.10978089
0.113219544
0.054390665
-0.118671216
-0.21422343
-0.016555496
-0.31600565
0.11248213
0.3266743
0.30826294
0.103486314
-0.22642037
0.01096997
0.068033285
0.008981424
-0.13619265
0.045085244
0.08164429
-0.047648948
0.026104068
0.14344433
-0.2081796
-0.06797955
0.086234175
-0.11824898
-0.0482344
-0.02936497
-0.005660966
0.0648665
0.11577211
-0.17782623
-0.17072053
-0.22836444
-0.10541772
-0.059066635
-0.092983745
0.031565014
0.10999364
0.0070501408
0.062423352
0.015137613
0.04752712
-0.043848656
0.025401225
-0.03617319
-0.058766782
-0.06542226
0.0690063
-0.1840717
-0.17794715
-0.13489644
-0.15530184
-0.12649211
-0.041766558
0.0060504074
-0.041946117
0.18005909
0.15281191
-0.040354896
0.03258596
0.10053985
-0.12858832
0.0008653386
-0.05734113
-0.17894912
-0.05851979
0.090033546
-0.016552577
0.022375206
0.019697094
-0.11313873
-0.04791595
-0.10008886
-0.089577466
-0.05834531
0.06995521
0.15488748
0.08132049
0.023871956
-0.015810456
-0.11440388
-0.19553263
-0.23219857
-0.29358473
0.022203144
-0.011010123
-0.06089463
-0.039422113
0.020119546
0.120276965
-0.17163168
-0.10307446
0.09381704
-0.024787176
-0.03195596
0.07724817
0.006045984
-0.04787888
0.030586584
-0.07075904
-0.1179297
-0.0062724217
-0.12274246
-0.21111579
-0.11952091
-0.15261757
-0.123321176
-0.06430275
-0.106610134
-0.050719194
-0.05253501
-0.03832196
-0.06338256
0.005510032
-0.14534861
-0.28214842
-0.023270342
-0.075604446
-0.2315961
-0.0512247
-0.090411395
-0.096518524
-0.35893536
-0.24676313
-0.080485314
-0.40284318
-0.2783276
-0.17008075
-0.3303284
0.12040338
-0.020736346
0.030557418
-0.08681684
-0.211478
-0.06366346
-0.093372986
-0.13236453
0.0223426
0.11057056
0.03295298
0.046062198
-0.11883845
-0.20753506
-0.17711532
-0.30851853
-0.27343825
-0.21388696
-0.079626456
0.05063807
-0.06646346
-0.017843064
0.028395494
0.0045281947
-0.07643838
0.042430423
-0.07746924
-0.14841343
-0.111394234
-0.08858609
0.03115914
0.07562391
0.09017647
0.15331905
0.2058777
0.08129459
0.11071295
0.23982555
0.13395795
0.13413475
0.31593922
0.32328153
0.082409866
0.15397608
0.31659073
0.011883898
-0.14260064
-0.06086074
0.21561088
0.006707961
-0.3175512
0.2433159
0.01021436
-0.03471885
-0.13596591
0.085178055
0.1770337
-0.094227955
-0.13974397
0.09408842
-0.0260809
-0.02986725
0.05198968
-0.07252728
-0.25925735
-0.1399642
0.2033447
-0.04222652
-0.27418703
0.3389121
0.13739388
0.010351794
0.10015091
0.20661516
0.30334336
-0.11621325
0.08496023
0.3008348
-0.09369029
-0.018434778
0.19848323
-0.06835923
0.042110123
0.091522455
-0.06984079
0.10410544
0.1076823
-0.15076339
0.003613071
0.08734928
0.060421463
0.1052212
-0.23074445
0.08556416
0.15374655
-0.08856479
0.018044284
-0.010581018
0.05449062
-0.13306485
-0.5302118
-0.03833999
-0.11211885
-0.88296497
-0.28347328
-0.058987144
-0.7060775
-0.068457
0.08412326
-0.0019350967
0.10681015
-0.08252275
-0.1490225
0.06519518
0.049846943
-0.070547186
0.09483089
0.19152518
0.059879582
-0.10468412
0.23205411
0.06492807
-0.055104792
0.24638683
0.08107751
0.009248065
-0.033073083
-0.03786324
0.13108654
-0.07286215
-0.08414689
-0.0340493
0.01085247
-0.025225597
-0.053244073
-0.026521754
-0.026908496
-0.08008029
-0.01958173
-0.07192804
-0.27803725
-0.056631263
0.12632357
-0.07744564
0.1968526
-0.058989175
-0.22429717
0.35702926
-0.037511203
-0.348371
0.32437772
0.09764024
-0.15461633
0.13381432
0.09820011
-0.069198616
-0.08846476
-0.054051794
0.048483394
-0.046658207
0.10652016
-0.058103688
-0.07538793
-0.08222509
-0.063524
-0.0075134775
-0.030270638
-0.18598075
-0.120934054
-0.14641438
0.075171106
-0.022045802
-0.11782404
-0.17457682
0.0905393
-0.09591666
-0.20105226
0.22541954
0.0066723013
-0.06954283
0.056302916
0.13284557
-0.074808106
-0.02370825
-0.14763136
-0.14537907
0.025573546
-0.013261238
-0.06358857
0.14699405
-0.07933079
-0.0006079782
-0.07586658
-0.54761034
-0.14403461
0.12049971
-0.25290862
-0.121505156
-0.21320829
0.0054739374
-0.07283796
-0.22194293
-0.08777557
0.0255907
-0.15951686
0.04436665
0.01987791
0.3537731
0.27268317
0.20838857
0.057013787
-0.29325408
-0.0660389
0.12899747
-0.12148038
-0.08072897
-0.20917667
-0.0277133
-0.16984366
-0.01976798
0.23990496
0.1840517
-0.15045877
0.18054107
0.079238474
0.10805998
0.18356909
0.12705626
0.065559395
-0.037481707
0.017458899
0.12676735
0.043922253
0.07022854
-0.017828764
-0.08635565
-0.07718438
0.0330933
-0.30986336
-0.12603517
0.094338395
0.03235466
-0.041231096
-0.046544243
0.17079373
0.05168671
-0.16155866
0.03348799
0.10103435
0.05984082
0.0738156
0.113949895
-0.10742018
-0.142221
-0.15506393
0.0055674985
0.34960625
-0.06376204
0.1450232
0.1384212
0.04961493
0.07755893
0.0626355
0.14734754
-0.042048328
0.02288638
0.11684257
0.035106752
-0.035239667
0.12720445
0.02227514
-0.04602646
-0.018564861
-0.12790194
-0.22636856
0.08716202
0.16849332
0.15118487
0.25881997
0.060489386
0.35138023
0.14774081
0.03716328
0.049259845
0.03857678
0.13430391
-0.04256991
-0.10424475
0.46983114
-0.0971643
0.24406886
-0.197754
-1.138798
-0.12521125
0.28384897
-0.30799896
0.018921383
0.010507443
0.32835785
-0.022789368
0.295035
0.2312731
0.0044843773
-0.18269438
-0.21133685
-0.07369206
-0.0072620152
0.03133186
-0.032452293
-0.16620964
-0.22519146
0.02417286
-0.13679498
-0.13727263
-0.08106552
-0.097420074
-0.104887195
0.02215054
0.02456883
-0.07623124
-0.043466005
-0.122981966
-0.17223789
-0.13660146
0.08007458
0.034394156
-0.16799082
0.044051893
-0.5072226
-0.27648276
0.17240688
-0.19501951
-0.12767142
0.15234539
0.16614597
0.15966076
0.07596921
-0.1160496
-0.12576683
-0.005055923
-0.24569812
-0.12800168
-0.10463384
-0.06379488
-0.12759613
0.06087506
0.024947468
-0.075640604
0.05326628
0.23017848
0.17992623
-0.010116457
0.17394668
0.14215402
0.15844595
0.0104975635
0.031901516
0.10383146
-0.18677478
-0.14563198
-0.018832458
-0.16548483
-0.09914121
0.05263903
-0.17801066
-0.042880658
0.14605536
0.034136597
0.10953991
0.08626304
0.04375073
-0.00924266
0.09101894
-0.19780056
-0.08059906
0.16504341
-0.00053911
0.009802839
-0.017232398
-0.05034144
-0.24021289
0.12049197
-0.5243803
-0.56515825
0.017507026
-0.33755824
-0.34604716
0.081335634
0.12548998
-0.007625973
0.0013479567
-0.34652498
-0.27390647
-0.12554021
-0.38976932
-0.1634797
0.124866486
0.051287588
0.07314546
0.11063728
-0.033469513
0.01358045
0.13779667
-0.10136648
0.0148269795
0.049705286
-0.06451789
-0.08072977
-0.06918951
-0.058695428
-0.069531456
-0.06022328
-0.12123217
-0.073496096
0.14518106
-0.04627091
0.037146103
0.21976064
-0.4351841
-0.2514364
0.17666496
-0.2599784
-0.30508855
-0.06063336
0.118887
-0.18467313
0.15793923
-0.23926991
-0.13471822
0.14839524
-0.092204094
0.051449433
0.2403273
0.12876719
0.24432321
-0.08249811
-0.17673498
-0.052652903
-0.15627399
-0.05777636
0.12303261
0.018077113
0.08231393
0.13135412
-0.017813979
-0.008768039
0.14987904
-0.06908525
0.09281286
0.2582772
0.107397914
0.15072846
0.0077294335
-0.015405547
-0.39516264
-0.41644022
0.045120746
-0.3799553
-0.30979285
0.10970021
0.13636854
0.20363656
0.068366356
-0.0063418257
-0.006082142
-0.14216563
-0.15889414
-0.13641581
0.017167691
0.013843583
-0.012521192
-0.29157346
-0.63747305
-0.24660513
-0.46673927
-0.29181534
0.10078308
0.0881266
0.08277899
0.03700936
-0.05984029
0.013086379
-0.059447303
0.036340173
-0.16939338
-0.0011255565
0.15684512
0.11020849
0.052552354
-0.02427942
-0.19196774
-0.022246286
-0.16070743
-0.08560935
0.030743612
-0.21719913
-0.19703338
-0.1836898
-0.009856355
0.115170665
0.020383028
0.17409573
0.13363768
0.034768693
0.20007344
0.21216127
0.34085354
0.20121701
0.10951521
-0.04480874
-0.17663682
-0.22449721
-0.1162204
0.33016753
0.322177
0.21225512
-0.10588361
-0.26177555
-0.25986364
-0.2766
-0.32270285
-0.09349184
0.010497345
0.13079295
0.16470829
0.28214237
0.34897357
0.18059741
0.30873102
-0.02252405
-0.061480645
-0.1691933
0.049980976
-0.1026144
-0.09240218
-0.30598256
-0.16683109
-0.38388595
-0.6515116
0.04823455
0.20896938
0.26167402
0.13808875
0.17463946
-0.039421316
-0.15116046
-0.17501634
-0.20217447
-0.09058423
-0.062671304
-0.008063403
-0.054751717
-0.08690737
-0.07965992
-0.014007756
-0.09708112
-0.06722477
-0.0050691855
-0.1504952
-0.06740099
-0.016809652
0.008809378
-0.036166057
-0.06262728
-0.08433433
-0.19638065
-0.0922292
0.26789907
0.25583974
-0.06074188
-0.042861655
-0.33100408
-0.09278207
-0.0012725269
0.13312069
0.18770091
-0.019814456
-0.006223121
0.13770714
0.05047013
-0.088461675
-0.08477472
0.0038126167
0.025652587
0.062384065
0.11961437
0.016287727
0.04759051
0.06469691
-0.12683257
0.005306627
-0.115732074
0.094605505
0.082865216
-0.01785992
0.074441925
0.08537358
0.024222245
-0.0033640708
-0.039546546
0.025721025
-0.19369635
0.14987315
-0.0031198137
0.0013570681
0.019406065
0.0023929318
0.03125917
0.026876258
-0.08685454
-0.10833493
-0.06725199
0.0775684
0.5566551
-0.18976186
0.22887951
0.42103782
-0.012244048
-0.10978658
-0.95566684
0.15744366
-0.26692888
0.0060089077
0.25499588
-0.29813194
0.16521223
0.20194623
-0.03060186
-0.11036769
0.15758526
0.21216278
0.10237736
-0.22337139
0.20358285
0.011064499
-0.1752942
0.062579185
-0.06532794
-0.10932623
-0.011574044
-0.12454967
0.05850632
-0.2138938
-0.19303253
0.17927939
-0.18606348
0.092508644
0.1968731
-0.022831121
0.12580426
0.119632505
0.014795461
0.08581613
0.0029932077
0.098294795
-0.11439201
-0.13748871
-0.23586357
0.04722455
0.06652165
-0.13387427
0.0026807387
0.06783518
0.039121192
-0.16471222
-0.11931721
0.047380492
-0.13944295
0.08559346
-0.04670167
-0.08700931
-0.10186232
0.05520715
0.0017455156
-0.020091321
-0.0050099893
-0.68229485
0.14759532
0.05415168
-0.069406636
-0.04542938
0.086419776
0.492027
-0.23614743
-0.53352195
0.16345648
0.4389565
-0.3202233
-0.059939496
0.27425018
0.37337446
-0.09585612
-0.21811813
0.041005075
-0.0003257872
0.08742317
0.029531443
0.033270016
0.074581884
0.058886707
0.06633531
0.053592138
-0.033132914
-0.2588742
-0.005417992
-0.21090615
-0.07168332
-0.020356681
0.005580037
0.047355704
-0.12651338
-0.01961206
0.11546992
0.13846593
0.14723171
0.1862551
-0.31745404
0.18757457
-0.16129611
-0.045035567
-0.2145166
-0.28877985
0.271594
-0.8731946
0.09489657
0.6869721
-0.4040179
0.17619608
0.46146816
0.23140813
0.14934672
-0.33685076
0.4466148
0.06479737
-0.50149745
0.21956234
-0.327439
-0.14045626
-0.18672188
-0.07288106
-0.05854581
-0.10188577
-0.037587173
-0.066935435
-0.16307107
-0.034172125
0.069300145
-0.1780119
-0.046865214
0.08250731
-0.10530514
0.021782853
0.10014799
-0.06765078
0.025033843
0.14757636
