0.57984006
-0.32729155
-0.20079055
1.7907921
-0.5239008
-1.2467215
0.6784212
-0.07305534
-0.6256941
0.499838
-0.3705153
-0.16836444
1.4101082
-0.42330506
-0.96323293
0.33409747
-0.13496567
-0.10770242
0.48818058
-0.48073974
0.02812319
1.460295
-0.5035208
-0.9123848
0.20468968
-0.05455968
-0.17008989
0.21561795
-0.2690978
-0.2940833
0.09859489
0.09281178
-0.322729
0.10954322
0.03960627
-0.30509365
-0.3401917
-0.2796192
-0.20559587
-0.7654012
-0.047624137
-0.2455895
-0.49953774
-0.41015133
-0.39462483
0.29584247
0.33851445
0.46281466
-0.10433153
1.078209
0.7564506
0.19928521
0.6246885
0.68530685
0.058401644
0.12282678
0.27059603
-0.16378172
0.03268923
0.39175227
0.09705291
-0.4191742
0.18071344
0.15365852
0.16856502
0.32091242
0.30146378
0.12680809
0.2620644
0.38734105
0.06397064
0.37938812
-0.003340222
-0.68307865
-0.4873658
-0.17317128
-0.7463284
-0.5102233
0.1348057
-0.75944054
-0.32325011
0.5707282
0.420074
0.29739487
0.2630957
0.56048346
0.5708842
-0.10741951
0.22919479
-0.029276479
0.4773944
-0.0834558
-0.19576341
-0.10493261
-0.21170391
0.0039796955
-0.3044338
-0.0965003
-0.09689671
0.51201195
-0.3303793
-0.41106382
-0.11183944
-0.37582284
-0.23629674
-0.0769796
-0.24006501
-0.45152175
-0.23067416
-0.06167897
0.090421505
-0.21421349
-0.1794619
-0.1950144
0.17858702
0.012138645
0.21673355
-0.03157897
-0.28684172
-0.103697255
-0.08689938
-0.08012653
-0.20849575
0.5129104
0.16496053
0.14041711
-0.31017175
-0.19350196
-0.20165023
0.007507595
-0.21261822
-0.20098184
0.25182366
0.17308475
0.10253837
0.34472224
-0.13428788
0.2984001
-0.10016396
-0.4309118
0.13096783
-0.0914634
-0.2939091
-0.112780504
-0.14387043
-0.26380298
0.12439619
-0.21475503
-0.4049347
0.04133103
0.06091723
-0.062544465
0.0267718
0.09185512
-0.056886725
0.023469552
-0.03131008
-0.024563473
0.018217849
-0.066561624
0.025762526
-0.15238665
-1.432223
-0.7264729
-0.25074062
0.96665275
0.5778824
0.008829398
0.9704955
0.3289851
0.08903078
-1.1235952
-0.23620509
0.26985246
0.622091
0.3489797
-0.13589974
0.22203851
-0.1924934
0.061470296
-1.3185017
-0.6333574
0.2251275
0.4875801
0.45171648
-0.1795903
0.6252083
0.09604161
-0.09774037
-0.23251401
0.062347177
0.43657362
-0.7865392
-0.17277135
0.9363311
-0.8021263
0.48442236
0.27097765
-0.62147754
0.10602631
0.48747903
-1.0043671
0.044593327
1.0114952
-0.767159
0.42040604
0.2363567
-0.6115993
-0.014395606
0.30702525
-1.0252696
0.090426
0.8530492
-0.79734486
0.67605335
0.22585052
-0.34044328
-0.4222379
-0.42016
-0.97992367
-1.5515734
-0.5293169
-0.6242581
-1.285199
-0.45631766
0.10950706
0.39454553
0.11208768
-0.026721556
-0.003961711
0.2971101
0.13312407
-0.08838094
0.28521815
0.3001196
0.7828147
-0.011494204
0.8796816
1.2219926
0.40082324
0.47022104
0.8910029
0.32558084
-0.08678249
0.045206197
0.09170551
0.13820538
0.06405943
0.09649268
0.04875756
0.19928026
0.15041547
-0.01000048
-0.014688215
-0.23729654
0.047120973
0.0053864922
0.0666773
-0.019636638
-0.17208347
-0.045749504
-0.08787611
0.07821868
0.057085924
-0.23998588
0.14692917
-0.18730967
0.2407134
0.05673387
0.1907016
-1.0943733
0.31581935
-0.6523622
-0.5442159
-0.2594678
0.48564124
0.429749
0.3321102
0.72054493
-0.0029817908
1.3101116
0.089839175
-0.36147457
-0.6735813
0.28581288
-0.07192806
-0.73424035
0.07514605
0.8322441
1.3958505
-0.19208664
0.30953538
-0.73508
-0.109579906
0.22361685
-0.8871557
-0.68213695
1.11109
0.6188644
0.6235522
0.52877104
-0.122872226
-0.032488503
-1.2958556
-1.1730407
-0.19625294
0.79638207
0.14454702
0.017026272
0.58789575
-0.23782049
-0.081224255
-0.7266255
-0.7956107
-0.05766387
0.12104995
0.03782368
-0.13534449
0.4054146
0.08835362
-0.30613756
-0.2465267
-0.17230046
0.1526954
0.13544907
1.1035775
0.5516451
0.48546118
1.4551971
0.95336825
-0.18997167
0.6487617
0.2312891
-0.40461436
-0.8812344
-0.60439026
-0.21484114
-0.7651709
-0.5163624
0.08464147
-0.051917437
-0.120581955
0.18061821
-0.46120313
-0.08120354
-0.36676338
-0.94523555
-0.23859762
0.2699384
-0.063849516
-0.10621668
0.42851523
0.9586053
-0.24070662
-0.15537013
-0.68794644
-0.52935565
0.08745096
-0.5996086
-0.37399772
0.5737253
1.2454853
0.2084757
0.36856672
0.19181737
0.5473829
0.52464116
0.31291127
0.4488608
-0.8562569
0.29884
-0.050465498
-0.6374838
-1.137094
-0.13111165
-0.5372407
-0.53410697
-0.033290047
0.15946525
-1.3553958
0.22410768
-0.21364453
0.11428964
0.07153934
0.033998538
-0.46276113
0.0533622
0.26856202
-0.98172534
0.10655171
0.12962654
0.5815764
0.4912889
0.17145793
-0.21508713
0.013940217
0.22295822
-0.69313854
0.093871996
0.2738039
0.7657567
0.36304748
-0.020454718
0.12819847
0.1299032
-0.11332138
-0.12469169
-0.24484164
-0.010431429
0.03054498
-0.037105788
0.083553046
0.17652327
-0.004364991
0.027461639
0.04420839
0.25278157
0.26300594
0.032020826
0.34151763
-0.041506983
0.088368885
0.1197388
0.1373227
0.042982247
0.36555094
-0.2131119
-0.11993302
0.18250532
-0.15159662
-0.39903435
-0.25613078
